<?xml version="1.0"?>
<opencv_storage>
<cascade>
  <stageType>BOOST</stageType>
  <featureType>LBP</featureType>
  <height>24</height>
  <width>48</width>
  <stageParams>
    <boostType>GAB</boostType>
    <minHitRate>9.9500000476837158e-01</minHitRate>
    <maxFalseAlarm>5.0000000000000000e-01</maxFalseAlarm>
    <weightTrimRate>9.4999999999999996e-01</weightTrimRate>
    <maxDepth>1</maxDepth>
    <maxWeakCount>100</maxWeakCount></stageParams>
  <featureParams>
    <maxCatCount>256</maxCatCount>
    <featSize>1</featSize></featureParams>
  <stageNum>18</stageNum>
  <stages>
    <!-- stage 0 -->
    <_>
      <maxWeakCount>2</maxWeakCount>
      <stageThreshold>-2.5327917933464050e-01</stageThreshold>
      <weakClassifiers>
        <_>
          <internalNodes>
            0 -1 20 298520925 323031063 1090556187 1024659725
            -1073696581 960496264 -1065318261 1006340267</internalNodes>
          <leafValues>
            -9.0432798862457275e-01 7.0766490697860718e-01</leafValues></_>
        <_>
          <internalNodes>
            0 -1 7 -697175073 -644804579 -654311285 290588987
            -1945620322 -209059688 -2130607461 1058216779</internalNodes>
          <leafValues>
            -8.2369416952133179e-01 6.5104883909225464e-01</leafValues></_></weakClassifiers></_>
    <!-- stage 1 -->
    <_>
      <maxWeakCount>3</maxWeakCount>
      <stageThreshold>-9.5296382904052734e-01</stageThreshold>
      <weakClassifiers>
        <_>
          <internalNodes>
            0 -1 16 -544220673 -746520559 1895928921 -1789849262
            -637484337 -1165326336 -2062907153 177144346</internalNodes>
          <leafValues>
            -7.7130979299545288e-01 7.1483623981475830e-01</leafValues></_>
        <_>
          <internalNodes>
            0 -1 43 -215625253 -1457139693 1368506461 -981352299
            -2147292687 -1207926772 -1946039095 70109675</internalNodes>
          <leafValues>
            -8.7165689468383789e-01 5.8896744251251221e-01</leafValues></_>
        <_>
          <internalNodes>
            0 -1 4 -54439459 1368883477 1073824091 1353535571 176375376
            1484783885 -503036547 -85236161</internalNodes>
          <leafValues>
            -7.7062147855758667e-01 6.9027793407440186e-01</leafValues></_></weakClassifiers></_>
    <!-- stage 2 -->
    <_>
      <maxWeakCount>3</maxWeakCount>
      <stageThreshold>-9.5646595954895020e-01</stageThreshold>
      <weakClassifiers>
        <_>
          <internalNodes>
            0 -1 44 269603195 957731029 268632531 429494673 -1878880082
            1602869376 1359578479 1051369611</internalNodes>
          <leafValues>
            -8.3823531866073608e-01 5.7770270109176636e-01</leafValues></_>
        <_>
          <internalNodes>
            0 -1 40 -715665195 -82374456 1224760057 -40407012 -725030725
            -1475932031 -2013152772 -664825856</internalNodes>
          <leafValues>
            -6.6364252567291260e-01 7.2306686639785767e-01</leafValues></_>
        <_>
          <internalNodes>
            0 -1 6 -791093923 -552546285 -1072643883 -117358321
            136839355 -120946687 -796847555 2101443095</internalNodes>
          <leafValues>
            -8.5261499881744385e-01 5.4541188478469849e-01</leafValues></_></weakClassifiers></_>
    <!-- stage 3 -->
    <_>
      <maxWeakCount>3</maxWeakCount>
      <stageThreshold>-9.9932843446731567e-01</stageThreshold>
      <weakClassifiers>
        <_>
          <internalNodes>
            0 -1 12 -237249058 1439236104 1342468303 -48786924
            1224919262 -299351928 -913399873 318378626</internalNodes>
          <leafValues>
            -8.6224490404129028e-01 5.5592107772827148e-01</leafValues></_>
        <_>
          <internalNodes>
            0 -1 9 -704163105 1400914005 -805121897 -511315709
            -767032915 713234432 -1006367841 2046525083</internalNodes>
          <leafValues>
            -7.4484521150588989e-01 6.2775105237960815e-01</leafValues></_>
        <_>
          <internalNodes>
            0 -1 47 -205266257 -1315057661 -2080128555 -711651043
            -2011324149 -662691709 -1515935158 1212205189</internalNodes>
          <leafValues>
            -7.7526098489761353e-01 6.0776168107986450e-01</leafValues></_></weakClassifiers></_>
    <!-- stage 4 -->
    <_>
      <maxWeakCount>3</maxWeakCount>
      <stageThreshold>-7.6088297367095947e-01</stageThreshold>
      <weakClassifiers>
        <_>
          <internalNodes>
            0 -1 5 1468481751 1568735497 -183680993 1362625555
            -1700918019 436732160 -921887569 2060270239</internalNodes>
          <leafValues>
            -7.7192980051040649e-01 6.4705884456634521e-01</leafValues></_>
        <_>
          <internalNodes>
            0 -1 25 -179144813 -552512495 9535571 1464881216 645953711
            -1467230078 -1736390453 1597063315</internalNodes>
          <leafValues>
            -6.7878776788711548e-01 6.7561006546020508e-01</leafValues></_>
        <_>
          <internalNodes>
            0 -1 17 -267196678 318990356 -2143223792 1898255271
            -2105350955 142622870 -805101057 -244581673</internalNodes>
          <leafValues>
            -6.8509042263031006e-01 6.8983459472656250e-01</leafValues></_></weakClassifiers></_>
    <!-- stage 5 -->
    <_>
      <maxWeakCount>2</maxWeakCount>
      <stageThreshold>-1.7069081962108612e-01</stageThreshold>
      <weakClassifiers>
        <_>
          <internalNodes>
            0 -1 51 -262679585 1901285569 -1073720359 1401012289
            -536297334 -1409154901 -2113371926 15450843</internalNodes>
          <leafValues>
            -7.5663715600967407e-01 6.2408757209777832e-01</leafValues></_>
        <_>
          <internalNodes>
            0 -1 3 -684506759 -226492393 -1056677865 1359695891
            -1040103424 -2104884688 -1073723043 -275828793</internalNodes>
          <leafValues>
            -7.5313997268676758e-01 5.8594632148742676e-01</leafValues></_></weakClassifiers></_>
    <!-- stage 6 -->
    <_>
      <maxWeakCount>5</maxWeakCount>
      <stageThreshold>-7.0200628042221069e-01</stageThreshold>
      <weakClassifiers>
        <_>
          <internalNodes>
            0 -1 42 -682757635 -1793916669 1099513861 -650395369
            -2013232999 -1820098557 18989497 148494335</internalNodes>
          <leafValues>
            -7.8147268295288086e-01 5.6822109222412109e-01</leafValues></_>
        <_>
          <internalNodes>
            0 -1 24 -251584263 -799195120 37848407 -612151214 563122850
            -310378366 -2147444502 -72716160</internalNodes>
          <leafValues>
            -5.8906704187393188e-01 7.5340408086776733e-01</leafValues></_>
        <_>
          <internalNodes>
            0 -1 55 -1533373505 -2108915534 -2147282442 60973187
            -1702637393 788643978 -1442610788 -1164510545</internalNodes>
          <leafValues>
            -7.6828211545944214e-01 6.3567149639129639e-01</leafValues></_>
        <_>
          <internalNodes>
            0 -1 18 -788467521 1460670512 -1048489477 1551925376
            -1610612411 -914358127 -2004873831 -1626009533</internalNodes>
          <leafValues>
            -6.6397029161453247e-01 7.1339482069015503e-01</leafValues></_>
        <_>
          <internalNodes>
            0 -1 49 183564597 934920181 -1342193729 1064828917 -557067
            -1073742850 -134217729 -1342341187</internalNodes>
          <leafValues>
            -6.1905038356781006e-01 7.6065498590469360e-01</leafValues></_></weakClassifiers></_>
    <!-- stage 7 -->
    <_>
      <maxWeakCount>2</maxWeakCount>
      <stageThreshold>-1.3824738562107086e-01</stageThreshold>
      <weakClassifiers>
        <_>
          <internalNodes>
            0 -1 48 -16848134 -93444 1056611067 939491327 -1430192904
            -1468139364 -34095105 -538968833</internalNodes>
          <leafValues>
            -5.5711776018142700e-01 7.3549884557723999e-01</leafValues></_>
        <_>
          <internalNodes>
            0 -1 8 -1996373537 -251441071 1091694939 -721022518 33785285
            647004291 -854865762 1392527872</internalNodes>
          <leafValues>
            -8.7374621629714966e-01 4.9630960822105408e-01</leafValues></_></weakClassifiers></_>
    <!-- stage 8 -->
    <_>
      <maxWeakCount>4</maxWeakCount>
      <stageThreshold>-3.5451993346214294e-01</stageThreshold>
      <weakClassifiers>
        <_>
          <internalNodes>
            0 -1 45 -637443387 -1961492224 -1056964203 290526211
            -1048005969 171966473 -1987721189 331319567</internalNodes>
          <leafValues>
            -7.0709383487701416e-01 5.4884546995162964e-01</leafValues></_>
        <_>
          <internalNodes>
            0 -1 34 -251341611 -145710968 -1727995693 -708295896
            -427252864 -1195273727 -888632855 981995160</internalNodes>
          <leafValues>
            -7.4500465393066406e-01 5.7250052690505981e-01</leafValues></_>
        <_>
          <internalNodes>
            0 -1 50 -988812730 -1069400063 1375977818 1025130627
            209750759 655363 -1862164086 -436473397</internalNodes>
          <leafValues>
            -6.9445908069610596e-01 5.8352047204971313e-01</leafValues></_>
        <_>
          <internalNodes>
            0 -1 39 285494748 1409613952 16789911 1426391299 1208221832
            -402652719 -1744830310 -1173868080</internalNodes>
          <leafValues>
            -7.4188125133514404e-01 6.1218059062957764e-01</leafValues></_></weakClassifiers></_>
    <!-- stage 9 -->
    <_>
      <maxWeakCount>4</maxWeakCount>
      <stageThreshold>-1.2055979967117310e+00</stageThreshold>
      <weakClassifiers>
        <_>
          <internalNodes>
            0 -1 21 -270536733 -270532611 -2049 -2105355 -262145 -18 -33
            -620526289</internalNodes>
          <leafValues>
            -4.6855345368385315e-01 8.1868129968643188e-01</leafValues></_>
        <_>
          <internalNodes>
            0 -1 31 420606167 965316609 -2130131047 394645520
            -2139060451 218480641 -1827550711 948798171</internalNodes>
          <leafValues>
            -8.1282848119735718e-01 5.2371048927307129e-01</leafValues></_>
        <_>
          <internalNodes>
            0 -1 41 -800149328 -199786489 20805 -1627387581 -771504002
            -922083064 -2146635473 -925111597</internalNodes>
          <leafValues>
            -6.6407752037048340e-01 5.8205592632293701e-01</leafValues></_>
        <_>
          <internalNodes>
            0 -1 15 -83886094 -1032336 -49154 938966010 -671301901
            -44697603 1979678719 -8421385</internalNodes>
          <leafValues>
            -5.9667748212814331e-01 7.0949280261993408e-01</leafValues></_></weakClassifiers></_>
    <!-- stage 10 -->
    <_>
      <maxWeakCount>4</maxWeakCount>
      <stageThreshold>-2.8773275017738342e-01</stageThreshold>
      <weakClassifiers>
        <_>
          <internalNodes>
            0 -1 1 -1681668613 -73297785 21022133 1900036371 -2146825709
            -1935081445 -2104874289 2114009879</internalNodes>
          <leafValues>
            -8.4444445371627808e-01 4.7499999403953552e-01</leafValues></_>
        <_>
          <internalNodes>
            0 -1 33 -2126491267 -782564711 1343262813 -1650114159
            -670967045 -841446783 -855197542 -1734344548</internalNodes>
          <leafValues>
            -6.2699854373931885e-01 6.2194120883941650e-01</leafValues></_>
        <_>
          <internalNodes>
            0 -1 14 48416034 -1811890172 335610000 1426449747 269584428
            -745963518 1619667163 -242750953</internalNodes>
          <leafValues>
            -7.7092295885086060e-01 5.2045428752899170e-01</leafValues></_>
        <_>
          <internalNodes>
            0 -1 0 169903475 129040177 2142891763 -1410073609 2142945274
            -675807369 242638837 -40648769</internalNodes>
          <leafValues>
            -5.8568376302719116e-01 7.6419883966445923e-01</leafValues></_></weakClassifiers></_>
    <!-- stage 11 -->
    <_>
      <maxWeakCount>4</maxWeakCount>
      <stageThreshold>-1.3425509929656982e+00</stageThreshold>
      <weakClassifiers>
        <_>
          <internalNodes>
            0 -1 23 1092737279 1463812112 -1073694465 1532248214
            167837833 -1056833526 115443855 1333770922</internalNodes>
          <leafValues>
            -6.7532467842102051e-01 5.7992565631866455e-01</leafValues></_>
        <_>
          <internalNodes>
            0 -1 29 -691801349 1359077698 38277625 269500770 1099030695
            1099169920 46828203 51899327</internalNodes>
          <leafValues>
            -6.2182086706161499e-01 6.2693500518798828e-01</leafValues></_>
        <_>
          <internalNodes>
            0 -1 10 -1069201833 -1861222138 1342292471 -1852620783
            -1408630229 -2013200382 260324335 -337031157</internalNodes>
          <leafValues>
            -5.8413481712341309e-01 6.3914096355438232e-01</leafValues></_>
        <_>
          <internalNodes>
            0 -1 53 -585817558 -771742174 67178588 1912690177 352506273
            -1425932158 -1660882143 2097409211</internalNodes>
          <leafValues>
            -7.2028720378875732e-01 5.3872936964035034e-01</leafValues></_></weakClassifiers></_>
    <!-- stage 12 -->
    <_>
      <maxWeakCount>4</maxWeakCount>
      <stageThreshold>-5.6236326694488525e-01</stageThreshold>
      <weakClassifiers>
        <_>
          <internalNodes>
            0 -1 2 1362332895 1493655683 671403091 -784166314 -932118510
            -2126446533 1493188943 1426286675</internalNodes>
          <leafValues>
            -8.0628269910812378e-01 4.9838188290596008e-01</leafValues></_>
        <_>
          <internalNodes>
            0 -1 19 -653798274 1344291234 33554578 285673474 -1870444501
            25182208 -1828386429 1073471179</internalNodes>
          <leafValues>
            -6.9886487722396851e-01 5.6801390647888184e-01</leafValues></_>
        <_>
          <internalNodes>
            0 -1 28 -1862264688 -851443706 525533 1560283137 -1995927370
            143130624 -1879012965 790298762</internalNodes>
          <leafValues>
            -7.8968304395675659e-01 5.1232504844665527e-01</leafValues></_>
        <_>
          <internalNodes>
            0 -1 22 1208304439 -1063972860 -2146434543 -1790902254
            -2130147174 1292091396 -1862172530 1089544330</internalNodes>
          <leafValues>
            -8.3907604217529297e-01 5.1491802930831909e-01</leafValues></_></weakClassifiers></_>
    <!-- stage 13 -->
    <_>
      <maxWeakCount>3</maxWeakCount>
      <stageThreshold>-7.7686113119125366e-01</stageThreshold>
      <weakClassifiers>
        <_>
          <internalNodes>
            0 -1 35 -1526761356 1627147622 -50333059 2147483612
            -891337500 -1088459696 889158660 -121657724</internalNodes>
          <leafValues>
            -6.9776117801666260e-01 8.0603450536727905e-01</leafValues></_>
        <_>
          <internalNodes>
            0 -1 26 -1010319102 286298120 67154128 1427177489
            -1878949785 -1055916032 134260736 -1727872861</internalNodes>
          <leafValues>
            -7.2808337211608887e-01 7.6510530710220337e-01</leafValues></_>
        <_>
          <internalNodes>
            0 -1 46 1074900165 1761673345 257 -1023327984 -2130541943
            -1879044096 68387072 29365927</internalNodes>
          <leafValues>
            -8.4420526027679443e-01 6.7470383644104004e-01</leafValues></_></weakClassifiers></_>
    <!-- stage 14 -->
    <_>
      <maxWeakCount>4</maxWeakCount>
      <stageThreshold>-2.2841668128967285e-01</stageThreshold>
      <weakClassifiers>
        <_>
          <internalNodes>
            0 -1 54 -1807494657 -1873309491 813756887 -1757068672
            25284865 270663688 -1006513014 470796433</internalNodes>
          <leafValues>
            -6.8141591548919678e-01 5.6204378604888916e-01</leafValues></_>
        <_>
          <internalNodes>
            0 -1 27 324228187 -1341050740 -922222381 1469105152
            -2061348725 -2113798144 159959471 -340131390</internalNodes>
          <leafValues>
            -6.7346614599227905e-01 5.9591162204742432e-01</leafValues></_>
        <_>
          <internalNodes>
            0 -1 13 -531801227 1367426049 1610613584 33882176 1892093981
            196746 537068071 -550022390</internalNodes>
          <leafValues>
            -7.8914594650268555e-01 4.7207108139991760e-01</leafValues></_>
        <_>
          <internalNodes>
            0 -1 37 -1073775235 1553790846 -69635 -1 2013265398
            -1191215107 217961780 -1606688790</internalNodes>
          <leafValues>
            -5.8906543254852295e-01 7.1163666248321533e-01</leafValues></_></weakClassifiers></_>
    <!-- stage 15 -->
    <_>
      <maxWeakCount>2</maxWeakCount>
      <stageThreshold>-1.4992064237594604e-01</stageThreshold>
      <weakClassifiers>
        <_>
          <internalNodes>
            0 -1 36 -787984176 -889175500 1159778328 1560313878
            -788426576 -1870655482 1610678408 436215946</internalNodes>
          <leafValues>
            -6.8814969062805176e-01 6.3776493072509766e-01</leafValues></_>
        <_>
          <internalNodes>
            0 -1 52 1343578122 1167065088 -2147479422 1426128897
            285213062 562364418 33568773 454772995</internalNodes>
          <leafValues>
            -7.8768557310104370e-01 5.9559524059295654e-01</leafValues></_></weakClassifiers></_>
    <!-- stage 16 -->
    <_>
      <maxWeakCount>2</maxWeakCount>
      <stageThreshold>-5.4108291864395142e-02</stageThreshold>
      <weakClassifiers>
        <_>
          <internalNodes>
            0 -1 30 -533807074 -745471976 129 42090496 32913 -1071579005
            -2080341886 696328833</internalNodes>
          <leafValues>
            -6.8905949592590332e-01 7.4947810173034668e-01</leafValues></_>
        <_>
          <internalNodes>
            0 -1 38 269504578 541097984 275 -1728052992 66945
            -2147483648 1088516 1343194248</internalNodes>
          <leafValues>
            -8.0358636379241943e-01 7.1140748262405396e-01</leafValues></_></weakClassifiers></_>
    <!-- stage 17 -->
    <_>
      <maxWeakCount>2</maxWeakCount>
      <stageThreshold>1.1604590713977814e-01</stageThreshold>
      <weakClassifiers>
        <_>
          <internalNodes>
            0 -1 32 238559362 175652842 784211633 645670830 1073684406
            578222070 1006569429 615949546</internalNodes>
          <leafValues>
            -7.8890877962112427e-01 1.</leafValues></_>
        <_>
          <internalNodes>
            0 -1 11 81920 -2130575360 260 1392513024 32770 268435464
            -2147483519 1094713346</internalNodes>
          <leafValues>
            -8.8395410776138306e-01 9.1572511196136475e-01</leafValues></_></weakClassifiers></_></stages>
  <features>
    <_>
      <rect>
        0 3 3 5</rect></_>
    <_>
      <rect>
        0 10 7 4</rect></_>
    <_>
      <rect>
        0 13 7 2</rect></_>
    <_>
      <rect>
        0 17 3 2</rect></_>
    <_>
      <rect>
        0 18 3 2</rect></_>
    <_>
      <rect>
        0 18 5 2</rect></_>
    <_>
      <rect>
        1 9 7 4</rect></_>
    <_>
      <rect>
        1 9 7 5</rect></_>
    <_>
      <rect>
        1 13 12 3</rect></_>
    <_>
      <rect>
        1 18 4 2</rect></_>
    <_>
      <rect>
        2 20 2 1</rect></_>
    <_>
      <rect>
        3 8 14 5</rect></_>
    <_>
      <rect>
        3 11 13 4</rect></_>
    <_>
      <rect>
        3 15 2 3</rect></_>
    <_>
      <rect>
        7 15 3 2</rect></_>
    <_>
      <rect>
        7 16 3 2</rect></_>
    <_>
      <rect>
        8 12 12 4</rect></_>
    <_>
      <rect>
        8 16 2 2</rect></_>
    <_>
      <rect>
        8 16 7 1</rect></_>
    <_>
      <rect>
        8 17 2 2</rect></_>
    <_>
      <rect>
        8 18 13 2</rect></_>
    <_>
      <rect>
        9 11 2 3</rect></_>
    <_>
      <rect>
        9 12 10 3</rect></_>
    <_>
      <rect>
        9 12 10 4</rect></_>
    <_>
      <rect>
        9 13 11 2</rect></_>
    <_>
      <rect>
        9 15 7 2</rect></_>
    <_>
      <rect>
        9 16 2 1</rect></_>
    <_>
      <rect>
        10 13 6 2</rect></_>
    <_>
      <rect>
        10 20 9 1</rect></_>
    <_>
      <rect>
        11 15 3 2</rect></_>
    <_>
      <rect>
        12 16 3 1</rect></_>
    <_>
      <rect>
        15 15 11 3</rect></_>
    <_>
      <rect>
        16 1 3 2</rect></_>
    <_>
      <rect>
        17 18 5 1</rect></_>
    <_>
      <rect>
        19 17 2 1</rect></_>
    <_>
      <rect>
        20 15 6 1</rect></_>
    <_>
      <rect>
        20 19 5 1</rect></_>
    <_>
      <rect>
        21 17 6 1</rect></_>
    <_>
      <rect>
        22 14 5 2</rect></_>
    <_>
      <rect>
        22 15 3 1</rect></_>
    <_>
      <rect>
        23 13 5 2</rect></_>
    <_>
      <rect>
        24 4 8 5</rect></_>
    <_>
      <rect>
        24 9 8 5</rect></_>
    <_>
      <rect>
        24 10 8 4</rect></_>
    <_>
      <rect>
        24 18 8 2</rect></_>
    <_>
      <rect>
        27 15 6 1</rect></_>
    <_>
      <rect>
        29 13 5 2</rect></_>
    <_>
      <rect>
        30 11 4 3</rect></_>
    <_>
      <rect>
        30 16 4 2</rect></_>
    <_>
      <rect>
        30 21 6 1</rect></_>
    <_>
      <rect>
        32 17 2 1</rect></_>
    <_>
      <rect>
        33 11 5 4</rect></_>
    <_>
      <rect>
        33 14 3 2</rect></_>
    <_>
      <rect>
        33 15 3 2</rect></_>
    <_>
      <rect>
        33 18 5 2</rect></_>
    <_>
      <rect>
        39 18 3 2</rect></_></features></cascade>
</opencv_storage>